digraph Tree {
node [shape=box] ;
0 [label="X[8] <= 80.5\ngini = 0.929\nsamples = 14\nvalue = [1, 1, 1, 1, 1, 1, 1, 1, 1, 1, 1, 1, 1, 1]"] ;
1 [label="gini = 0.0\nsamples = 1\nvalue = [0, 0, 0, 0, 0, 1, 0, 0, 0, 0, 0, 0, 0, 0]"] ;
0 -> 1 [labeldistance=2.5, labelangle=45, headlabel="True"] ;
2 [label="X[3] <= 430.5\ngini = 0.923\nsamples = 13\nvalue = [1, 1, 1, 1, 1, 0, 1, 1, 1, 1, 1, 1, 1, 1]"] ;
0 -> 2 [labeldistance=2.5, labelangle=-45, headlabel="False"] ;
3 [label="gini = 0.0\nsamples = 1\nvalue = [0, 0, 0, 0, 0, 0, 0, 0, 0, 1, 0, 0, 0, 0]"] ;
2 -> 3 ;
4 [label="X[8] <= 763.5\ngini = 0.917\nsamples = 12\nvalue = [1, 1, 1, 1, 1, 0, 1, 1, 1, 0, 1, 1, 1, 1]"] ;
2 -> 4 ;
5 [label="gini = 0.0\nsamples = 1\nvalue = [0, 0, 0, 0, 0, 0, 1, 0, 0, 0, 0, 0, 0, 0]"] ;
4 -> 5 ;
6 [label="X[7] <= 981.0\ngini = 0.909\nsamples = 11\nvalue = [1, 1, 1, 1, 1, 0, 0, 1, 1, 0, 1, 1, 1, 1]"] ;
4 -> 6 ;
7 [label="gini = 0.0\nsamples = 1\nvalue = [0, 0, 0, 0, 0, 0, 0, 0, 1, 0, 0, 0, 0, 0]"] ;
6 -> 7 ;
8 [label="X[10] <= 421.0\ngini = 0.9\nsamples = 10\nvalue = [1, 1, 1, 1, 1, 0, 0, 1, 0, 0, 1, 1, 1, 1]"] ;
6 -> 8 ;
9 [label="gini = 0.0\nsamples = 1\nvalue = [0, 0, 0, 1, 0, 0, 0, 0, 0, 0, 0, 0, 0, 0]"] ;
8 -> 9 ;
10 [label="X[1] <= 393.5\ngini = 0.889\nsamples = 9\nvalue = [1, 1, 1, 0, 1, 0, 0, 1, 0, 0, 1, 1, 1, 1]"] ;
8 -> 10 ;
11 [label="gini = 0.0\nsamples = 1\nvalue = [0, 0, 0, 0, 0, 0, 0, 0, 0, 0, 0, 1, 0, 0]"] ;
10 -> 11 ;
12 [label="X[7] <= 1380.5\ngini = 0.875\nsamples = 8\nvalue = [1, 1, 1, 0, 1, 0, 0, 1, 0, 0, 1, 0, 1, 1]"] ;
10 -> 12 ;
13 [label="gini = 0.0\nsamples = 1\nvalue = [0, 0, 0, 0, 1, 0, 0, 0, 0, 0, 0, 0, 0, 0]"] ;
12 -> 13 ;
14 [label="X[5] <= 1407.0\ngini = 0.857\nsamples = 7\nvalue = [1, 1, 1, 0, 0, 0, 0, 1, 0, 0, 1, 0, 1, 1]"] ;
12 -> 14 ;
15 [label="gini = 0.0\nsamples = 1\nvalue = [0, 1, 0, 0, 0, 0, 0, 0, 0, 0, 0, 0, 0, 0]"] ;
14 -> 15 ;
16 [label="X[10] <= 672.5\ngini = 0.833\nsamples = 6\nvalue = [1, 0, 1, 0, 0, 0, 0, 1, 0, 0, 1, 0, 1, 1]"] ;
14 -> 16 ;
17 [label="gini = 0.0\nsamples = 1\nvalue = [0, 0, 0, 0, 0, 0, 0, 1, 0, 0, 0, 0, 0, 0]"] ;
16 -> 17 ;
18 [label="X[1] <= 501.5\ngini = 0.8\nsamples = 5\nvalue = [1, 0, 1, 0, 0, 0, 0, 0, 0, 0, 1, 0, 1, 1]"] ;
16 -> 18 ;
19 [label="gini = 0.0\nsamples = 1\nvalue = [0, 0, 0, 0, 0, 0, 0, 0, 0, 0, 0, 0, 1, 0]"] ;
18 -> 19 ;
20 [label="X[10] <= 1019.5\ngini = 0.75\nsamples = 4\nvalue = [1, 0, 1, 0, 0, 0, 0, 0, 0, 0, 1, 0, 0, 1]"] ;
18 -> 20 ;
21 [label="gini = 0.0\nsamples = 1\nvalue = [0, 0, 0, 0, 0, 0, 0, 0, 0, 0, 1, 0, 0, 0]"] ;
20 -> 21 ;
22 [label="X[1] <= 763.5\ngini = 0.667\nsamples = 3\nvalue = [1, 0, 1, 0, 0, 0, 0, 0, 0, 0, 0, 0, 0, 1]"] ;
20 -> 22 ;
23 [label="gini = 0.0\nsamples = 1\nvalue = [0, 0, 0, 0, 0, 0, 0, 0, 0, 0, 0, 0, 0, 1]"] ;
22 -> 23 ;
24 [label="X[9] <= 1481.5\ngini = 0.5\nsamples = 2\nvalue = [1, 0, 1, 0, 0, 0, 0, 0, 0, 0, 0, 0, 0, 0]"] ;
22 -> 24 ;
25 [label="gini = 0.0\nsamples = 1\nvalue = [0, 0, 1, 0, 0, 0, 0, 0, 0, 0, 0, 0, 0, 0]"] ;
24 -> 25 ;
26 [label="gini = 0.0\nsamples = 1\nvalue = [1, 0, 0, 0, 0, 0, 0, 0, 0, 0, 0, 0, 0, 0]"] ;
24 -> 26 ;
}